digraph Tree {
node [shape=box] ;
0 [label="X[62] <= 0.5\ngini = 0.2158\nsamples = 72860\nvalue = [63895, 8965]"] ;
1 [label="X[0] <= 0.1795\ngini = 0.1745\nsamples = 69694\nvalue = [62965, 6729]"] ;
0 -> 1 [labeldistance=2.5, labelangle=45, headlabel="True"] ;
2 [label="X[2] <= 3.0636\ngini = 0.1192\nsamples = 42696\nvalue = [39979, 2717]"] ;
1 -> 2 ;
3 [label="gini = 0.1183\nsamples = 42668\nvalue = [39975, 2693]"] ;
2 -> 3 ;
4 [label="gini = 0.2449\nsamples = 28\nvalue = [4, 24]"] ;
2 -> 4 ;
5 [label="X[2] <= -1.1654\ngini = 0.253\nsamples = 26998\nvalue = [22986, 4012]"] ;
1 -> 5 ;
6 [label="gini = 0.3293\nsamples = 6596\nvalue = [5225, 1371]"] ;
5 -> 6 ;
7 [label="gini = 0.2254\nsamples = 20402\nvalue = [17761, 2641]"] ;
5 -> 7 ;
8 [label="X[7] <= 0.5\ngini = 0.4149\nsamples = 3166\nvalue = [930, 2236]"] ;
0 -> 8 [labeldistance=2.5, labelangle=-45, headlabel="False"] ;
9 [label="X[191] <= 0.5\ngini = 0.2717\nsamples = 2337\nvalue = [379, 1958]"] ;
8 -> 9 ;
10 [label="gini = 0.2592\nsamples = 2307\nvalue = [353, 1954]"] ;
9 -> 10 ;
11 [label="gini = 0.2311\nsamples = 30\nvalue = [26, 4]"] ;
9 -> 11 ;
12 [label="X[92] <= 0.5\ngini = 0.4458\nsamples = 829\nvalue = [551, 278]"] ;
8 -> 12 ;
13 [label="gini = 0.4271\nsamples = 796\nvalue = [550, 246]"] ;
12 -> 13 ;
14 [label="gini = 0.0588\nsamples = 33\nvalue = [1, 32]"] ;
12 -> 14 ;
}